<?xml version="1.0"?>
<!--
		Stump-based 24x24 discrete(?) adaboost frontal
face detector.
		Created by Rainer Lienhart.

////////////////////////////////////////////////////////////////////////////////////////

	IMPORTANT: READ BEFORE DOWNLOADING, COPYING, INSTALLING OR USING.

	By downloading, copying, installing or using the software you agree to this license.
	If you do not agree to this license, do not download, install, copy or use the software.

					Intel License Agreement
								For Open Source Computer Vision Library

 Copyright (C) 2000, Intel Corporation, all rights reserved.
 Third party copyrights are property of their respective owners.

 Redistribution and use in source and binary forms, with or without modification,
 are permitted provided that the following conditions are met:

	 * Redistribution's of source code must retain the above copyright notice,
		 this list of conditions and the following disclaimer.

	 * Redistribution's in binary form must reproduce the above copyright notice,
		 this list of conditions and the following disclaimer in the documentation
		 and/or other materials provided with the distribution.

	 * The name of Intel Corporation may not be used to endorse or promote products
		 derived from this software without specific prior written permission.

 This software is provided by the copyright holders and contributors "as is"
 and any express or implied warranties, including, but not limited to, the
 implied warranties of merchantability and fitness for a particular purpose
 are disclaimed. In no event shall the Intel Corporation or contributors be
 liable for any direct, indirect, incidental, special, exemplary, or
 consequential damages (including, but not limited to, procurement of
 substitute goods or services; loss of use, data, or profits; or business
 interruption) however caused and on any theory of liability, whether in
 contract, strict liability, or tort (including negligence or otherwise)
 arising in any way out of the use of this software, even if advised of the
 possibility of such damage.
-->
<opencv_storage>
<haarcascade_frontalface_default>
<size>24 24</size>
<stages>
	<_>
		<maxWeakCount>3</maxWeakCount>
		<stageThreshold>-3.3972854013442993e+00</stageThreshold>
		<weakClassifiers>
			<_>
				<internalNodes>0 -1 3 3.0000001192092896e-02</internalNodes>
				<leafValues>-3.3144249916076660e+00 4.4931099414825440e-01</leafValues>
			</_>
		</weakClassifiers>
	</_>
	<_>
		<maxWeakCount>6</maxWeakCount>
		<stageThreshold>-5.4662981033325195e+00</stageThreshold>
		<weakClassifiers>
			<_>
				<internalNodes>0 -1 5 9.9371001124382019e-02</internalNodes>
				<leafValues>5.5751299858093262e-01 -1.8743000030517578e+00</leafValues>
			</_>
			<_>
				<internalNodes>0 -1 6 2.7340000960975885e-03</internalNodes>
				<leafValues>-1.6911929845809937e+00 4.4009700417518616e-01</leafValues>
			</_>
			<_>
				<internalNodes>0 -1 7 -1.8859000876545906e-02</internalNodes>
				<leafValues>9.2782098054885864e-01 -6.6349899768829346e-01</leafValues>
			</_>
			<_>
				<internalNodes>0 -1 8 -7.0569999516010284e-03</internalNodes>
				<leafValues>9.7634297609329224e-01 -1.9173000007867813e-02</leafValues>
			</_>
			<_>
				<internalNodes>0 -1 9 -4.4096998870372772e-02</internalNodes>
				<leafValues>1.5443000197410583e-01 -1.1843889951709230e+00</leafValues>
			</_>
			<_>
				<internalNodes>0 -1 10 -6.0669999569654465e-02</internalNodes>
				<leafValues>-6.0669999569654465e-02 1.6202019453048706e+00</leafValues>
			</_>
		</weakClassifiers>
	</_>
	<!-- Many additional stages omitted here for brevity. The full cascade
			 contains hundreds of stages and thousands of nodes. For reliable
			 detection you should use the original OpenCV cascade file. -->
</stages>
</haarcascade_frontalface_default>
</opencv_storage>
